svm_type epsilon_svr
kernel_type rbf
gamma 1
nr_class 2
total_sv 10
rho -0.0289903
SV
-0.06505739857543408 1:0.43800974 2:0.023527367 3:0.82828587 4:0.024884027 5:0.24245809 6:-1.0638356 7:1.5235163 
0.03303699314222822 1:-0.21489775 2:-0.32268918 3:0.78900003 4:1.6637653 5:0.0074358167 6:-1.4175343 7:1.0287444 
0.02578003481340217 1:0.12474766 2:-0.144779 3:0.78553689 4:5.3456786 5:0.1187698 6:-1.3854105 7:1.5782447 
-0.1015216626882768 1:-0.18774757 2:-0.9511168 3:2.3760002 4:2.6676632 5:0.060086379 6:-1.1331138 7:0.47451874 
-0.02992313785557363 1:1.2047153 2:0.26727128 3:2.2970002 4:0.57438917 5:0.013686736 6:-1.2994285 7:1.272597 
-0.003227854739371796 1:-1.2895793 2:-1.0121572 3:2.4960001 4:5.4566513 5:0.2499829 6:-1.4228204 7:0.73479067 
0.1108913673425246 1:-1.1124419 2:0.83477926 3:2.0630002 4:5.0014232 5:0.0055795609 6:-1.2766784 7:1.5299345 
0.03860456694244139 1:0.27767339 2:-0.16691995 3:0.50611764 4:0.22545407 5:0.22519363 6:-1.3662017 7:0.76162456 
-0.04731713152188202 1:-0.50949895 2:0.19765872 3:1.105 4:0.85926505 5:0.24102788 6:-1.2478561 7:1.2399479 
0.03873422313994186 1:-0.62328452 2:-0.4181529 3:2.4780002 4:0.18977357 5:0.083284112 6:-1.0363979 7:1.4856779 
