svm_type epsilon_svr
kernel_type rbf
gamma 1
nr_class 2
total_sv 2
rho 0.005
SV
-0.005000000046549525 1:4.68 2:0.183 3:-1.41 4:4.68 5:0.183 6:-1.41 7:0.27 8:0.111 
0.005000000046549525 1:1.64 2:0.242 3:-1.41 4:1.64 5:0.242 6:-1.41 7:0.315 8:0.111 
